-1.659160916683593279e-01
1.264030176999509925e-01
-2.032865366032398924e-01
1.607401897027959381e-01
-1.521204869991548414e-01
1.655159617538102812e-01
2.193935993026083220e-01
1.458544044028826578e-02
-8.753391260094318602e-03
-2.728375687260629623e-01
3.872405452218172228e-02
6.656255875443597980e-02
-2.879225500986964947e-01
-2.877097130667108926e-01
-8.702142900886399024e-02
1.101965299312788887e-01
3.965959775473495430e-01
-1.331091529578061761e-01
1.240709205690050387e-01
1.460557559600734745e-01
-4.599106681401544938e-02
1.934483255902265109e-01
-6.349239916550427146e-03
-1.377360627266781545e-01
-1.065380556100118670e-01
7.849917798957938009e-02
2.919472467949928429e-01
-4.049057329420014950e-01
-8.847420532515713754e-02
3.279347956983382217e-01
3.208525814597414372e-01
-1.034130501447404898e-01
-5.335946923138749909e-02
2.025925433283086163e-01
1.227406927101871471e-02
-3.519066648886111648e-01
-5.815495857072405794e-02
7.864872574241729697e-02
-1.816624535766673820e-01
1.409278875648474760e-01
